1.0
0.707
1.0
-0.707
1.0
0.6934
1.0
-0.6934
1.0
0.6533
1.0
-0.6533
1.0
0.588
1.0
-0.588
1.0
0.7036
1.0
-0.7036
1.0
0.677
1.0
-0.677
1.0
0.6235
1.0
-0.6235
1.0
0.5464
1.0
-0.5464
1.0
0.5
1.0
-0.5
1.0
0.3928
1.0
-0.3928
1.0
0.2705
1.0
-0.2705
1.0
0.138
1.0
-0.138
1.0
0.4485
1.0
-0.4485
1.0
0.3333
1.0
-0.3333
1.0
0.2053
1.0
-0.2053
1.0
0.06934
1.0
-0.06934
1.0
-6e-08
1.0
6e-08
1.0
-0.138
1.0
0.138
1.0
-0.2705
1.0
0.2705
1.0
-0.3928
1.0
0.3928
1.0
-0.06934
1.0
0.06934
1.0
-0.2053
1.0
0.2053
1.0
-0.3333
1.0
0.3333
1.0
-0.4485
1.0
0.4485
1.0
-0.5
1.0
0.5
1.0
-0.588
1.0
0.588
1.0
-0.6533
1.0
0.6533
1.0
-0.6934
1.0
0.6934
1.0
-0.5464
1.0
0.5464
1.0
-0.6235
1.0
0.6235
1.0
-0.677
1.0
0.677
1.0
-0.7036
1.0
0.7036
1.0
0.707
1.0
-0.707
1.0
0.6934
1.0
-0.6934
1.0
0.6533
1.0
-0.6533
1.0
0.588
1.0
-0.588
1.0
0.7036
1.0
-0.7036
1.0
0.677
1.0
-0.677
1.0
0.6235
1.0
-0.6235
1.0
0.5464
1.0
-0.5464
1.0
0.5
1.0
-0.5
1.0
0.3928
1.0
-0.3928
1.0
0.2705
1.0
-0.2705
1.0
0.138
1.0
-0.138
1.0
0.4485
1.0
-0.4485
1.0
0.3333
1.0
-0.3333
1.0
0.2053
1.0
-0.2053
1.0
0.06934
1.0
-0.06934
1.0
-6e-08
1.0
6e-08
1.0
-0.138
1.0
0.138
1.0
-0.2705
1.0
0.2705
1.0
-0.3928
1.0
0.3928
1.0
-0.06934
1.0
0.06934
1.0
-0.2053
1.0
0.2053
1.0
-0.3333
1.0
0.3333
1.0
-0.4485
1.0
0.4485
1.0
-0.5
1.0
0.5
1.0
-0.588
1.0
0.588
1.0
-0.6533
1.0
0.6533
1.0
-0.6934
1.0
0.6934
1.0
-0.5464
1.0
0.5464
1.0
-0.6235
1.0
0.6235
1.0
-0.677
1.0
0.677
1.0
-0.7036
1.0
0.7036
