1.0
0.707
1.0
-0.707
1.0
0.6533
1.0
-0.6533
1.0
0.5
1.0
-0.5
1.0
0.2705
1.0
-0.2705
1.0
0.6934
1.0
-0.6934
1.0
0.588
1.0
-0.588
1.0
0.3928
1.0
-0.3928
1.0
0.138
1.0
-0.138
1.0
-6e-08
1.0
6e-08
1.0
-0.2705
1.0
0.2705
1.0
-0.5
1.0
0.5
1.0
-0.6533
1.0
0.6533
1.0
-0.138
1.0
0.138
1.0
-0.3928
1.0
0.3928
1.0
-0.588
1.0
0.588
1.0
-0.6934
1.0
0.6934
1.0
0.707
1.0
-0.707
1.0
0.6533
1.0
-0.6533
1.0
0.5
1.0
-0.5
1.0
0.2705
1.0
-0.2705
1.0
0.6934
1.0
-0.6934
1.0
0.588
1.0
-0.588
1.0
0.3928
1.0
-0.3928
1.0
0.138
1.0
-0.138
1.0
-6e-08
1.0
6e-08
1.0
-0.2705
1.0
0.2705
1.0
-0.5
1.0
0.5
1.0
-0.6533
1.0
0.6533
1.0
-0.138
1.0
0.138
1.0
-0.3928
1.0
0.3928
1.0
-0.588
1.0
0.588
1.0
-0.6934
1.0
0.6934
1.0
0.707
1.0
-0.707
1.0
0.6533
1.0
-0.6533
1.0
0.5
1.0
-0.5
1.0
0.2705
1.0
-0.2705
1.0
0.6934
1.0
-0.6934
1.0
0.588
1.0
-0.588
1.0
0.3928
1.0
-0.3928
1.0
0.138
1.0
-0.138
1.0
-6e-08
1.0
6e-08
1.0
-0.2705
1.0
0.2705
1.0
-0.5
1.0
0.5
1.0
-0.6533
1.0
0.6533
1.0
-0.138
1.0
0.138
1.0
-0.3928
1.0
0.3928
1.0
-0.588
1.0
0.588
1.0
-0.6934
1.0
0.6934
1.0
0.707
1.0
-0.707
1.0
0.6533
1.0
-0.6533
1.0
0.5
1.0
-0.5
1.0
0.2705
1.0
-0.2705
1.0
0.6934
1.0
-0.6934
1.0
0.588
1.0
-0.588
1.0
0.3928
1.0
-0.3928
1.0
0.138
1.0
-0.138
1.0
-6e-08
1.0
6e-08
1.0
-0.2705
1.0
0.2705
1.0
-0.5
1.0
0.5
1.0
-0.6533
1.0
0.6533
1.0
-0.138
1.0
0.138
1.0
-0.3928
1.0
0.3928
1.0
-0.588
1.0
0.588
1.0
-0.6934
1.0
0.6934
