1.0
0.707
1.0
-0.707
1.0
0.5
1.0
-0.5
1.0
-6e-08
1.0
6e-08
1.0
-0.5
1.0
0.5
1.0
0.6533
1.0
-0.6533
1.0
0.2705
1.0
-0.2705
1.0
-0.2705
1.0
0.2705
1.0
-0.6533
1.0
0.6533
1.0
0.707
1.0
-0.707
1.0
0.5
1.0
-0.5
1.0
-6e-08
1.0
6e-08
1.0
-0.5
1.0
0.5
1.0
0.6533
1.0
-0.6533
1.0
0.2705
1.0
-0.2705
1.0
-0.2705
1.0
0.2705
1.0
-0.6533
1.0
0.6533
1.0
0.707
1.0
-0.707
1.0
0.5
1.0
-0.5
1.0
-6e-08
1.0
6e-08
1.0
-0.5
1.0
0.5
1.0
0.6533
1.0
-0.6533
1.0
0.2705
1.0
-0.2705
1.0
-0.2705
1.0
0.2705
1.0
-0.6533
1.0
0.6533
1.0
0.707
1.0
-0.707
1.0
0.5
1.0
-0.5
1.0
-6e-08
1.0
6e-08
1.0
-0.5
1.0
0.5
1.0
0.6533
1.0
-0.6533
1.0
0.2705
1.0
-0.2705
1.0
-0.2705
1.0
0.2705
1.0
-0.6533
1.0
0.6533
1.0
0.707
1.0
-0.707
1.0
0.5
1.0
-0.5
1.0
-6e-08
1.0
6e-08
1.0
-0.5
1.0
0.5
1.0
0.6533
1.0
-0.6533
1.0
0.2705
1.0
-0.2705
1.0
-0.2705
1.0
0.2705
1.0
-0.6533
1.0
0.6533
1.0
0.707
1.0
-0.707
1.0
0.5
1.0
-0.5
1.0
-6e-08
1.0
6e-08
1.0
-0.5
1.0
0.5
1.0
0.6533
1.0
-0.6533
1.0
0.2705
1.0
-0.2705
1.0
-0.2705
1.0
0.2705
1.0
-0.6533
1.0
0.6533
1.0
0.707
1.0
-0.707
1.0
0.5
1.0
-0.5
1.0
-6e-08
1.0
6e-08
1.0
-0.5
1.0
0.5
1.0
0.6533
1.0
-0.6533
1.0
0.2705
1.0
-0.2705
1.0
-0.2705
1.0
0.2705
1.0
-0.6533
1.0
0.6533
1.0
0.707
1.0
-0.707
1.0
0.5
1.0
-0.5
1.0
-6e-08
1.0
6e-08
1.0
-0.5
1.0
0.5
1.0
0.6533
1.0
-0.6533
1.0
0.2705
1.0
-0.2705
1.0
-0.2705
1.0
0.2705
1.0
-0.6533
1.0
0.6533
