1.0
0.707
1.0
-0.707
1.0
0.707
1.0
-0.707
1.0
0.707
1.0
-0.707
1.0
0.707
1.0
-0.707
1.0
0.707
1.0
-0.707
1.0
0.707
1.0
-0.707
1.0
0.707
1.0
-0.707
1.0
0.707
1.0
-0.707
1.0
0.707
1.0
-0.707
1.0
0.707
1.0
-0.707
1.0
0.707
1.0
-0.707
1.0
0.707
1.0
-0.707
1.0
0.707
1.0
-0.707
1.0
0.707
1.0
-0.707
1.0
0.707
1.0
-0.707
1.0
0.707
1.0
-0.707
1.0
0.707
1.0
-0.707
1.0
0.707
1.0
-0.707
1.0
0.707
1.0
-0.707
1.0
0.707
1.0
-0.707
1.0
0.707
1.0
-0.707
1.0
0.707
1.0
-0.707
1.0
0.707
1.0
-0.707
1.0
0.707
1.0
-0.707
1.0
0.707
1.0
-0.707
1.0
0.707
1.0
-0.707
1.0
0.707
1.0
-0.707
1.0
0.707
1.0
-0.707
1.0
0.707
1.0
-0.707
1.0
0.707
1.0
-0.707
1.0
0.707
1.0
-0.707
1.0
0.707
1.0
-0.707
1.0
0.707
1.0
-0.707
1.0
0.707
1.0
-0.707
1.0
0.707
1.0
-0.707
1.0
0.707
1.0
-0.707
1.0
0.707
1.0
-0.707
1.0
0.707
1.0
-0.707
1.0
0.707
1.0
-0.707
1.0
0.707
1.0
-0.707
1.0
0.707
1.0
-0.707
1.0
0.707
1.0
-0.707
1.0
0.707
1.0
-0.707
1.0
0.707
1.0
-0.707
1.0
0.707
1.0
-0.707
1.0
0.707
1.0
-0.707
1.0
0.707
1.0
-0.707
1.0
0.707
1.0
-0.707
1.0
0.707
1.0
-0.707
1.0
0.707
1.0
-0.707
1.0
0.707
1.0
-0.707
1.0
0.707
1.0
-0.707
1.0
0.707
1.0
-0.707
1.0
0.707
1.0
-0.707
1.0
0.707
1.0
-0.707
1.0
0.707
1.0
-0.707
1.0
0.707
1.0
-0.707
1.0
0.707
1.0
-0.707
1.0
0.707
1.0
-0.707
1.0
0.707
1.0
-0.707
1.0
0.707
1.0
-0.707
1.0
0.707
1.0
-0.707
1.0
0.707
1.0
-0.707
1.0
0.707
1.0
-0.707
